digraph Tree {
node [shape=box, style="filled, rounded", color="black", fontname=helvetica] ;
edge [fontname=helvetica] ;
0 [label="age <= 34.83\nentropy = 0.6\nsamples = 100.0%\nvalue = [0.85, 0.15]\nclass = 0", fillcolor="#e9975b"] ;
1 [label="age <= 21.2\nentropy = 0.97\nsamples = 37.7%\nvalue = [0.6, 0.4]\nclass = 0", fillcolor="#f6d5bd"] ;
0 -> 1 [labeldistance=2.5, labelangle=45, headlabel="True"] ;
2 [label="income <= 33446.3\nentropy = 0.89\nsamples = 7.6%\nvalue = [0.69, 0.31]\nclass = 0", fillcolor="#f1b991"] ;
1 -> 2 ;
3 [label="age <= 19.55\nentropy = 0.27\nsamples = 1.5%\nvalue = [0.95, 0.05]\nclass = 0", fillcolor="#e68742"] ;
2 -> 3 ;
4 [label="entropy = 0.0\nsamples = 0.8%\nvalue = [1.0, 0.0]\nclass = 0", fillcolor="#e58139"] ;
3 -> 4 ;
5 [label="income <= 21212.42\nentropy = 0.54\nsamples = 0.7%\nvalue = [0.88, 0.12]\nclass = 0", fillcolor="#e99355"] ;
3 -> 5 ;
6 [label="loan <= 2411.79\nentropy = 1.0\nsamples = 0.2%\nvalue = [0.5, 0.5]\nclass = 0", fillcolor="#ffffff"] ;
5 -> 6 ;
7 [label="entropy = 0.0\nsamples = 0.1%\nvalue = [1.0, 0.0]\nclass = 0", fillcolor="#e58139"] ;
6 -> 7 ;
8 [label="entropy = 0.0\nsamples = 0.1%\nvalue = [0.0, 1.0]\nclass = 1", fillcolor="#399de5"] ;
6 -> 8 ;
9 [label="entropy = 0.0\nsamples = 0.5%\nvalue = [1.0, 0.0]\nclass = 0", fillcolor="#e58139"] ;
5 -> 9 ;
10 [label="income <= 34651.38\nentropy = 0.95\nsamples = 6.1%\nvalue = [0.63, 0.37]\nclass = 0", fillcolor="#f4cbad"] ;
2 -> 10 ;
11 [label="entropy = 0.0\nsamples = 0.1%\nvalue = [0.0, 1.0]\nclass = 1", fillcolor="#399de5"] ;
10 -> 11 ;
12 [label="age <= 20.99\nentropy = 0.93\nsamples = 6.0%\nvalue = [0.66, 0.34]\nclass = 0", fillcolor="#f2c29f"] ;
10 -> 12 ;
13 [label="age <= 18.85\nentropy = 0.96\nsamples = 5.5%\nvalue = [0.62, 0.38]\nclass = 0", fillcolor="#f5ceb2"] ;
12 -> 13 ;
14 [label="loan <= 5549.68\nentropy = 0.98\nsamples = 1.3%\nvalue = [0.41, 0.59]\nclass = 1", fillcolor="#c2e1f7"] ;
13 -> 14 ;
15 [label="entropy = 0.0\nsamples = 0.6%\nvalue = [1.0, 0.0]\nclass = 0", fillcolor="#e58139"] ;
14 -> 15 ;
16 [label="entropy = 0.0\nsamples = 0.7%\nvalue = [0.0, 1.0]\nclass = 1", fillcolor="#399de5"] ;
14 -> 16 ;
17 [label="income <= 36841.11\nentropy = 0.88\nsamples = 4.2%\nvalue = [0.7, 0.3]\nclass = 0", fillcolor="#f0b78d"] ;
13 -> 17 ;
18 [label="entropy = 0.0\nsamples = 0.4%\nvalue = [1.0, 0.0]\nclass = 0", fillcolor="#e58139"] ;
17 -> 18 ;
19 [label="income <= 68118.93\nentropy = 0.91\nsamples = 3.8%\nvalue = [0.67, 0.33]\nclass = 0", fillcolor="#f2be99"] ;
17 -> 19 ;
20 [label="loan <= 7440.48\nentropy = 0.93\nsamples = 3.7%\nvalue = [0.65, 0.35]\nclass = 0", fillcolor="#f3c4a2"] ;
19 -> 20 ;
21 [label="loan <= 4978.07\nentropy = 0.32\nsamples = 2.4%\nvalue = [0.94, 0.06]\nclass = 0", fillcolor="#e78945"] ;
20 -> 21 ;
22 [label="entropy = 0.0\nsamples = 1.5%\nvalue = [1.0, 0.0]\nclass = 0", fillcolor="#e58139"] ;
21 -> 22 ;
23 [label="income <= 45444.26\nentropy = 0.59\nsamples = 0.9%\nvalue = [0.86, 0.14]\nclass = 0", fillcolor="#e9965a"] ;
21 -> 23 ;
24 [label="entropy = 0.0\nsamples = 0.2%\nvalue = [0.0, 1.0]\nclass = 1", fillcolor="#399de5"] ;
23 -> 24 ;
25 [label="entropy = 0.0\nsamples = 0.7%\nvalue = [1.0, 0.0]\nclass = 0", fillcolor="#e58139"] ;
23 -> 25 ;
26 [label="entropy = 0.0\nsamples = 1.3%\nvalue = [0.0, 1.0]\nclass = 1", fillcolor="#399de5"] ;
20 -> 26 ;
27 [label="entropy = 0.0\nsamples = 0.1%\nvalue = [1.0, 0.0]\nclass = 0", fillcolor="#e58139"] ;
19 -> 27 ;
28 [label="entropy = 0.0\nsamples = 0.6%\nvalue = [1.0, 0.0]\nclass = 0", fillcolor="#e58139"] ;
12 -> 28 ;
29 [label="loan <= 3507.15\nentropy = 0.98\nsamples = 30.0%\nvalue = [0.58, 0.42]\nclass = 0", fillcolor="#f8ddca"] ;
1 -> 29 ;
30 [label="loan <= 2482.25\nentropy = 0.3\nsamples = 12.6%\nvalue = [0.95, 0.05]\nclass = 0", fillcolor="#e68844"] ;
29 -> 30 ;
31 [label="entropy = 0.0\nsamples = 8.6%\nvalue = [1.0, 0.0]\nclass = 0", fillcolor="#e58139"] ;
30 -> 31 ;
32 [label="age <= 28.46\nentropy = 0.65\nsamples = 4.0%\nvalue = [0.83, 0.17]\nclass = 0", fillcolor="#ea9a61"] ;
30 -> 32 ;
33 [label="income <= 21847.78\nentropy = 0.86\nsamples = 1.9%\nvalue = [0.71, 0.29]\nclass = 0", fillcolor="#efb388"] ;
32 -> 33 ;
34 [label="entropy = 0.0\nsamples = 0.5%\nvalue = [0.0, 1.0]\nclass = 1", fillcolor="#399de5"] ;
33 -> 34 ;
35 [label="loan <= 3104.63\nentropy = 0.28\nsamples = 1.4%\nvalue = [0.95, 0.05]\nclass = 0", fillcolor="#e68743"] ;
33 -> 35 ;
36 [label="entropy = 0.0\nsamples = 0.9%\nvalue = [1.0, 0.0]\nclass = 0", fillcolor="#e58139"] ;
35 -> 36 ;
37 [label="loan <= 3160.97\nentropy = 0.5\nsamples = 0.5%\nvalue = [0.89, 0.11]\nclass = 0", fillcolor="#e89152"] ;
35 -> 37 ;
38 [label="entropy = 0.0\nsamples = 0.1%\nvalue = [0.0, 1.0]\nclass = 1", fillcolor="#399de5"] ;
37 -> 38 ;
39 [label="entropy = 0.0\nsamples = 0.4%\nvalue = [1.0, 0.0]\nclass = 0", fillcolor="#e58139"] ;
37 -> 39 ;
40 [label="income <= 25558.59\nentropy = 0.34\nsamples = 2.1%\nvalue = [0.94, 0.06]\nclass = 0", fillcolor="#e78946"] ;
32 -> 40 ;
41 [label="loan <= 2527.46\nentropy = 0.92\nsamples = 0.3%\nvalue = [0.33, 0.67]\nclass = 1", fillcolor="#9ccef2"] ;
40 -> 41 ;
42 [label="entropy = 0.0\nsamples = 0.1%\nvalue = [0.0, 1.0]\nclass = 1", fillcolor="#399de5"] ;
41 -> 42 ;
43 [label="age <= 33.82\nentropy = 1.0\nsamples = 0.2%\nvalue = [0.5, 0.5]\nclass = 0", fillcolor="#ffffff"] ;
41 -> 43 ;
44 [label="entropy = 0.0\nsamples = 0.1%\nvalue = [0.0, 1.0]\nclass = 1", fillcolor="#399de5"] ;
43 -> 44 ;
45 [label="entropy = 0.0\nsamples = 0.1%\nvalue = [1.0, 0.0]\nclass = 0", fillcolor="#e58139"] ;
43 -> 45 ;
46 [label="entropy = 0.0\nsamples = 1.8%\nvalue = [1.0, 0.0]\nclass = 0", fillcolor="#e58139"] ;
40 -> 46 ;
47 [label="income <= 42191.7\nentropy = 0.91\nsamples = 17.4%\nvalue = [0.32, 0.68]\nclass = 1", fillcolor="#98ccf1"] ;
29 -> 47 ;
48 [label="age <= 33.53\nentropy = 0.36\nsamples = 6.1%\nvalue = [0.07, 0.93]\nclass = 1", fillcolor="#47a4e7"] ;
47 -> 48 ;
49 [label="age <= 33.29\nentropy = 0.39\nsamples = 5.5%\nvalue = [0.08, 0.92]\nclass = 1", fillcolor="#49a5e7"] ;
48 -> 49 ;
50 [label="loan <= 3679.72\nentropy = 0.35\nsamples = 5.4%\nvalue = [0.06, 0.94]\nclass = 1", fillcolor="#47a4e7"] ;
49 -> 50 ;
51 [label="income <= 29192.51\nentropy = 1.0\nsamples = 0.6%\nvalue = [0.5, 0.5]\nclass = 0", fillcolor="#ffffff"] ;
50 -> 51 ;
52 [label="entropy = 0.0\nsamples = 0.2%\nvalue = [0.0, 1.0]\nclass = 1", fillcolor="#399de5"] ;
51 -> 52 ;
53 [label="entropy = 0.0\nsamples = 0.4%\nvalue = [1.0, 0.0]\nclass = 0", fillcolor="#e58139"] ;
51 -> 53 ;
54 [label="income <= 34006.65\nentropy = 0.11\nsamples = 4.8%\nvalue = [0.01, 0.99]\nclass = 1", fillcolor="#3c9ee5"] ;
50 -> 54 ;
55 [label="entropy = 0.0\nsamples = 2.5%\nvalue = [0.0, 1.0]\nclass = 1", fillcolor="#399de5"] ;
54 -> 55 ;
56 [label="age <= 30.74\nentropy = 0.19\nsamples = 2.3%\nvalue = [0.03, 0.97]\nclass = 1", fillcolor="#3fa0e6"] ;
54 -> 56 ;
57 [label="entropy = 0.0\nsamples = 1.9%\nvalue = [0.0, 1.0]\nclass = 1", fillcolor="#399de5"] ;
56 -> 57 ;
58 [label="loan <= 4803.65\nentropy = 0.65\nsamples = 0.4%\nvalue = [0.17, 0.83]\nclass = 1", fillcolor="#61b1ea"] ;
56 -> 58 ;
59 [label="entropy = 0.0\nsamples = 0.1%\nvalue = [1.0, 0.0]\nclass = 0", fillcolor="#e58139"] ;
58 -> 59 ;
60 [label="entropy = 0.0\nsamples = 0.3%\nvalue = [0.0, 1.0]\nclass = 1", fillcolor="#399de5"] ;
58 -> 60 ;
61 [label="entropy = 0.0\nsamples = 0.1%\nvalue = [1.0, 0.0]\nclass = 0", fillcolor="#e58139"] ;
49 -> 61 ;
62 [label="entropy = 0.0\nsamples = 0.7%\nvalue = [0.0, 1.0]\nclass = 1", fillcolor="#399de5"] ;
48 -> 62 ;
63 [label="age <= 34.0\nentropy = 0.99\nsamples = 11.3%\nvalue = [0.44, 0.56]\nclass = 1", fillcolor="#d6ebfa"] ;
47 -> 63 ;
64 [label="loan <= 7503.16\nentropy = 0.98\nsamples = 11.0%\nvalue = [0.43, 0.57]\nclass = 1", fillcolor="#cde6f8"] ;
63 -> 64 ;
65 [label="loan <= 5520.94\nentropy = 0.8\nsamples = 6.4%\nvalue = [0.75, 0.25]\nclass = 0", fillcolor="#edaa79"] ;
64 -> 65 ;
66 [label="entropy = 0.0\nsamples = 3.1%\nvalue = [1.0, 0.0]\nclass = 0", fillcolor="#e58139"] ;
65 -> 66 ;
67 [label="loan <= 6802.37\nentropy = 1.0\nsamples = 3.4%\nvalue = [0.51, 0.49]\nclass = 0", fillcolor="#fefaf8"] ;
65 -> 67 ;
68 [label="loan <= 6074.55\nentropy = 0.97\nsamples = 2.3%\nvalue = [0.59, 0.41]\nclass = 0", fillcolor="#f7d7c0"] ;
67 -> 68 ;
69 [label="income <= 47359.56\nentropy = 0.96\nsamples = 1.2%\nvalue = [0.39, 0.61]\nclass = 1", fillcolor="#b7dbf6"] ;
68 -> 69 ;
70 [label="entropy = 0.0\nsamples = 0.7%\nvalue = [0.0, 1.0]\nclass = 1", fillcolor="#399de5"] ;
69 -> 70 ;
71 [label="entropy = 0.0\nsamples = 0.5%\nvalue = [1.0, 0.0]\nclass = 0", fillcolor="#e58139"] ;
69 -> 71 ;
72 [label="age <= 24.83\nentropy = 0.74\nsamples = 1.1%\nvalue = [0.79, 0.21]\nclass = 0", fillcolor="#eca36e"] ;
68 -> 72 ;
73 [label="entropy = 0.0\nsamples = 0.1%\nvalue = [0.0, 1.0]\nclass = 1", fillcolor="#399de5"] ;
72 -> 73 ;
74 [label="age <= 29.72\nentropy = 0.65\nsamples = 1.0%\nvalue = [0.83, 0.17]\nclass = 0", fillcolor="#ea9a61"] ;
72 -> 74 ;
75 [label="entropy = 0.0\nsamples = 0.6%\nvalue = [1.0, 0.0]\nclass = 0", fillcolor="#e58139"] ;
74 -> 75 ;
76 [label="age <= 32.01\nentropy = 0.95\nsamples = 0.4%\nvalue = [0.62, 0.38]\nclass = 0", fillcolor="#f5cdb0"] ;
74 -> 76 ;
77 [label="entropy = 0.0\nsamples = 0.2%\nvalue = [0.0, 1.0]\nclass = 1", fillcolor="#399de5"] ;
76 -> 77 ;
78 [label="entropy = 0.0\nsamples = 0.2%\nvalue = [1.0, 0.0]\nclass = 0", fillcolor="#e58139"] ;
76 -> 78 ;
79 [label="loan <= 6957.45\nentropy = 0.9\nsamples = 1.1%\nvalue = [0.31, 0.69]\nclass = 1", fillcolor="#93caf1"] ;
67 -> 79 ;
80 [label="entropy = 0.0\nsamples = 0.3%\nvalue = [0.0, 1.0]\nclass = 1", fillcolor="#399de5"] ;
79 -> 80 ;
81 [label="loan <= 7359.07\nentropy = 1.0\nsamples = 0.8%\nvalue = [0.5, 0.5]\nclass = 0", fillcolor="#ffffff"] ;
79 -> 81 ;
82 [label="age <= 24.76\nentropy = 0.95\nsamples = 0.6%\nvalue = [0.38, 0.62]\nclass = 1", fillcolor="#b0d8f5"] ;
81 -> 82 ;
83 [label="entropy = 0.0\nsamples = 0.1%\nvalue = [1.0, 0.0]\nclass = 0", fillcolor="#e58139"] ;
82 -> 83 ;
84 [label="loan <= 7108.53\nentropy = 0.65\nsamples = 0.5%\nvalue = [0.17, 0.83]\nclass = 1", fillcolor="#61b1ea"] ;
82 -> 84 ;
85 [label="entropy = 0.0\nsamples = 0.1%\nvalue = [1.0, 0.0]\nclass = 0", fillcolor="#e58139"] ;
84 -> 85 ;
86 [label="entropy = 0.0\nsamples = 0.4%\nvalue = [0.0, 1.0]\nclass = 1", fillcolor="#399de5"] ;
84 -> 86 ;
87 [label="entropy = 0.0\nsamples = 0.2%\nvalue = [1.0, 0.0]\nclass = 0", fillcolor="#e58139"] ;
81 -> 87 ;
88 [label="entropy = 0.0\nsamples = 4.6%\nvalue = [0.0, 1.0]\nclass = 1", fillcolor="#399de5"] ;
64 -> 88 ;
89 [label="entropy = 0.0\nsamples = 0.3%\nvalue = [1.0, 0.0]\nclass = 0", fillcolor="#e58139"] ;
63 -> 89 ;
90 [label="entropy = 0.0\nsamples = 62.3%\nvalue = [1.0, 0.0]\nclass = 0", fillcolor="#e58139"] ;
0 -> 90 [labeldistance=2.5, labelangle=-45, headlabel="False"] ;
}